function anonymous(input
/**/) {
  var net = {"layers":[{"0":{},"1":{},"2":{}},{"0":{"bias":-0.2852027546797581,"weights":{"0":-0.4934399021807405,"1":-0.39878958605961523,"2":-0.3621494101531743}},"1":{"bias":-0.12953910990038686,"weights":{"0":0.12895778253027942,"1":-0.21235368901739707,"2":-0.25605537473726236}},"2":{"bias":-0.4081116829923791,"weights":{"0":0.982014370313959,"1":0.1551235074639007,"2":0.01416092158857735}},"3":{"bias":-0.20920357856245156,"weights":{"0":-0.51998407210354,"1":-0.3268864652166196,"2":-0.2450656669512695}},"4":{"bias":-0.21723379257439637,"weights":{"0":-0.5183151705763912,"1":-0.5354262739415659,"2":-0.36778960193090043}},"5":{"bias":-0.19866329345642103,"weights":{"0":-0.30027649692185315,"1":-0.8590199377704828,"2":-0.27834097857642925}},"6":{"bias":-0.43979639612149235,"weights":{"0":-0.3225659523865593,"1":-0.39031412869015086,"2":-0.22654492798088832}},"7":{"bias":-0.38902928417914323,"weights":{"0":-0.36206898254939185,"1":-0.6033863583146468,"2":-0.08790855520818118}},"8":{"bias":0.15267866237539743,"weights":{"0":-0.8363302743375924,"1":-0.7913323369056143,"2":0.2431074587341607}},"9":{"bias":-0.2960445796119823,"weights":{"0":-0.2271389936339634,"1":-0.20297283079523726,"2":-0.3306000329811403}},"10":{"bias":-0.4214974369495734,"weights":{"0":-0.5435788008758248,"1":-0.5179776460210186,"2":0.07408642824321945}},"11":{"bias":-0.5050295919598383,"weights":{"0":-1.2610700330705018,"1":-0.8890111332446353,"2":-0.8390006973211144}},"12":{"bias":-0.224428286383045,"weights":{"0":-0.08269056555291064,"1":-0.27944339838583576,"2":-0.3463271144883307}},"13":{"bias":-0.07326685701188343,"weights":{"0":-0.8360854611343798,"1":-0.5899632983020107,"2":0.21898363849000171}},"14":{"bias":-0.31703615510711397,"weights":{"0":-0.6768082071528554,"1":-0.3252698812270176,"2":-0.019880083891133757}},"15":{"bias":-0.4105065374672701,"weights":{"0":-0.31357054598019807,"1":-1.0450793893539025,"2":-0.019809043735533417}},"16":{"bias":-0.44954617272946956,"weights":{"0":-0.13222812257345667,"1":-0.24070555802051982,"2":-0.06467035494920102}},"17":{"bias":-0.3009299764856458,"weights":{"0":-0.32439198543668446,"1":-0.5556956144961828,"2":-0.061504168831879334}},"18":{"bias":-0.41416769278001725,"weights":{"0":-0.23986921323034308,"1":-0.5404576133579584,"2":-0.17178766848161303}},"19":{"bias":-0.20106089856650464,"weights":{"0":-0.053792710179012444,"1":-0.34571880961607065,"2":-0.09297681090328017}},"20":{"bias":-0.050728120176173855,"weights":{"0":-0.8122766222416129,"1":-0.6444368875068919,"2":0.23242686843521895}},"21":{"bias":-0.35117669733490736,"weights":{"0":-0.49727507767018553,"1":-0.5274515278657631,"2":-0.09510248292254517}},"22":{"bias":-0.2594921889002973,"weights":{"0":-0.14432868118564737,"1":-0.22866911219387254,"2":-0.6206835894433179}},"23":{"bias":-0.4315091587037931,"weights":{"0":0.06193899669114158,"1":-0.30653355681427114,"2":-0.05690238965571914}},"24":{"bias":-0.3404534485357371,"weights":{"0":-0.3772303263402706,"1":-0.5968309705215779,"2":-0.1913081621513434}},"25":{"bias":-0.31024776802863024,"weights":{"0":-0.17332219278894365,"1":-0.5087908251974078,"2":-0.3230322699210587}},"26":{"bias":-0.19885386934304636,"weights":{"0":-0.7149132200319228,"1":-0.5136476640893654,"2":0.07434627042326503}},"27":{"bias":-0.3626944403964543,"weights":{"0":-0.23367453077137526,"1":-0.2637878245300506,"2":-0.2725346173154038}},"28":{"bias":-0.30593217485505814,"weights":{"0":0.46865575074928945,"1":-0.025743510789704313,"2":-0.014547070140111104}},"29":{"bias":-0.32262658072628164,"weights":{"0":-0.31145032925490806,"1":-0.6202539821547276,"2":-0.13400780845601887}},"30":{"bias":-0.027020464228825217,"weights":{"0":-0.7697065396252042,"1":-0.7061589727375108,"2":0.1940736085442757}},"31":{"bias":-0.3277664553354776,"weights":{"0":-0.27037888638652935,"1":-0.7075576472130523,"2":-0.1856110583814002}},"32":{"bias":-0.6975923138184899,"weights":{"0":-1.3693635037399123,"1":-1.0627949796195493,"2":-0.5896296063651181}},"33":{"bias":-0.447256556675441,"weights":{"0":-0.41078101109942794,"1":-0.5471997765656225,"2":0.02324351068410094}},"34":{"bias":-0.2112140847380281,"weights":{"0":-0.9830455168670323,"1":-0.5435944448921542,"2":0.5212519967087722}},"35":{"bias":-0.30023380997992477,"weights":{"0":-0.46117685554434956,"1":-0.5047692450408647,"2":-0.02106944756065181}},"36":{"bias":-0.38938922540352433,"weights":{"0":-0.4123699141566762,"1":-0.4885392564961588,"2":-0.23488949688454275}},"37":{"bias":-0.18211695491862806,"weights":{"0":-0.1858672401383397,"1":-0.5778079619131781,"2":-0.2717680574607776}},"38":{"bias":-0.2742450245451693,"weights":{"0":-0.42819047253873455,"1":-0.41656836898785277,"2":-0.16162084914372224}},"39":{"bias":-0.3006058229661694,"weights":{"0":-0.5691524071954867,"1":-0.7982984219560074,"2":0.15234133484834725}},"40":{"bias":-0.3093876904468372,"weights":{"0":-0.5143287714365543,"1":-0.47337986620798567,"2":-0.6013791876455552}},"41":{"bias":-0.4831981777099314,"weights":{"0":-0.22058921948350288,"1":-0.4276250987766027,"2":-0.0678044865523549}},"42":{"bias":-0.5490448893175998,"weights":{"0":-1.7654942561023497,"1":-1.2895358431240196,"2":-0.7037472815038908}},"43":{"bias":-0.2675763391547497,"weights":{"0":-0.5962691634199776,"1":-0.5167417912152907,"2":-0.013735920197414713}},"44":{"bias":-0.6079456163091078,"weights":{"0":-0.8175067563604558,"1":-0.6888188669474035,"2":-0.4551451413603336}},"45":{"bias":-0.1593583546198231,"weights":{"0":-0.6071137561493526,"1":-0.5613935891149386,"2":0.022888072996268084}},"46":{"bias":-0.5346765657411452,"weights":{"0":-1.342334391762596,"1":-1.0433093447409967,"2":-0.7654715084450437}},"47":{"bias":3.515305810988027,"weights":{"0":-6.958353527111955,"1":-3.5752330124288165,"2":-1.7667996277691917}},"48":{"bias":-0.29457257346026733,"weights":{"0":-0.5921692237895205,"1":-0.649097883859271,"2":0.3114083855154847}},"49":{"bias":-0.3600581747037404,"weights":{"0":-0.586721555973061,"1":-0.5071214423103275,"2":-0.44686874313526787}},"50":{"bias":-0.5496915549919325,"weights":{"0":-0.8077179540716811,"1":-0.5883330722476877,"2":-0.6002024753893918}},"51":{"bias":-0.37832747491461266,"weights":{"0":-0.5277375811323485,"1":-0.4792852418495307,"2":-0.5205907723510882}},"52":{"bias":0.009086748641291682,"weights":{"0":-2.6815084586906437,"1":-1.9991043869387457,"2":-0.3123915463551964}},"53":{"bias":-0.4326458182559635,"weights":{"0":-0.48955564647702776,"1":-0.4573164637491037,"2":-0.3423077203889762}},"54":{"bias":-0.17857150806971225,"weights":{"0":0.6743283393488028,"1":0.22957328588044043,"2":-0.304471302934692}},"55":{"bias":-0.2690015388287416,"weights":{"0":-0.1769608477557467,"1":-0.4644401030093282,"2":-0.17687049644561664}},"56":{"bias":-0.3347988716297898,"weights":{"0":-0.480546476683582,"1":-0.40219217632653786,"2":-0.07827360464505372}},"57":{"bias":-0.25073117222894914,"weights":{"0":-0.24542186756903112,"1":-0.18094044374565607,"2":-0.3013843880863268}},"58":{"bias":-0.347101974423341,"weights":{"0":-0.37491428047715536,"1":-0.35064014607739596,"2":-0.5471477469331447}},"59":{"bias":-0.31971200372391656,"weights":{"0":-0.41846802653270715,"1":-0.4397287716372127,"2":-0.5021001983902871}},"60":{"bias":-0.15639319975174454,"weights":{"0":-0.3258534987396833,"1":-0.7580622043713462,"2":-0.25777533587995566}},"61":{"bias":-0.26832409991925893,"weights":{"0":-0.2247488428406218,"1":-0.34827019339202986,"2":-0.40639065159499876}},"62":{"bias":-0.3266387525322716,"weights":{"0":0.8882250944355372,"1":0.10134605777713972,"2":0.10296063768757843}},"63":{"bias":-0.09498840235091956,"weights":{"0":-0.7197735867100935,"1":-0.564243614870009,"2":0.023289445208685266}},"64":{"bias":-0.44342839962692465,"weights":{"0":-0.539227982375686,"1":-0.28946924335173685,"2":-0.08670380792272298}},"65":{"bias":-0.3524732114222533,"weights":{"0":-0.7027468021139756,"1":-0.35431609425335836,"2":0.03148923753631919}},"66":{"bias":-0.4187543756221635,"weights":{"0":-0.3532663708176417,"1":-0.32594992945651663,"2":-0.16955398362739213}},"67":{"bias":-0.383621673719356,"weights":{"0":0.9363283263904499,"1":0.1244676803854558,"2":-0.012213922925385284}},"68":{"bias":-0.3540653333109283,"weights":{"0":-0.5470124921637338,"1":-0.6168791324704656,"2":0.0418884184956788}},"69":{"bias":-0.1039727058562031,"weights":{"0":-0.6541332219118262,"1":-0.5256471828916697,"2":-0.09920957033444895}},"70":{"bias":-0.41612227824981995,"weights":{"0":-0.3822347503960876,"1":-0.3662618693540031,"2":-0.12220337133989627}},"71":{"bias":-0.41241909237819774,"weights":{"0":1.0844058909069727,"1":0.17233086922171795,"2":0.02602500488158688}},"72":{"bias":-0.029570616159085367,"weights":{"0":-0.8203284594913014,"1":-0.41529121240048755,"2":-0.02094732659393614}},"73":{"bias":0.03362098587166094,"weights":{"0":-0.9596849420828738,"1":-0.6794919244662557,"2":0.4505414887751803}},"74":{"bias":-0.1968276257938719,"weights":{"0":-0.5084701387843864,"1":-0.709145218828886,"2":-0.05891257745477703}},"75":{"bias":-0.22807077009421753,"weights":{"0":-0.4930665273900415,"1":-0.6869795564902806,"2":-0.060251173554661905}},"76":{"bias":-0.21930872699455753,"weights":{"0":0.8245612843735968,"1":0.13775909054920385,"2":-0.02727782304764651}},"77":{"bias":-0.33096302499495756,"weights":{"0":-0.19491801568878472,"1":-0.48574623447950116,"2":-0.38278650298749045}},"78":{"bias":0.008746211391251604,"weights":{"0":-0.8173047641908056,"1":-0.4789212590620881,"2":0.021377773823319964}},"79":{"bias":-0.38840597308796937,"weights":{"0":-0.3672497657616584,"1":-0.8101260603984124,"2":-0.040459765408955996}}},{"0":{"bias":-1.4539794727752449,"weights":{"0":0.31127685379121983,"1":-0.2375783949310434,"2":-1.210320181428574,"3":0.3712354703379158,"4":0.38869938811091376,"5":0.5407062695574117,"6":0.23392309163862585,"7":0.3804094929748158,"8":1.061505676896659,"9":0.04135367994398913,"10":0.5024853165004076,"11":-0.38065644636634055,"12":-0.03724590236759768,"13":0.864509488352634,"14":0.5449322568861152,"15":0.7664581709563125,"16":-0.022205244543610607,"17":0.2854196923657175,"18":0.20426687515040923,"19":-0.05320940255522411,"20":0.896194324493681,"21":0.48255419133420424,"22":-0.04141968788096269,"23":-0.14772491049898542,"24":0.4144498232221229,"25":0.17790547543534793,"26":0.7080826998679535,"27":0.07296253783384324,"28":-0.6071468198032325,"29":0.35388095351955995,"30":0.9032363576600608,"31":0.3640059593565044,"32":-0.5983335790302091,"33":0.3981272354683969,"34":1.0394397359173948,"35":0.3886311946548076,"36":0.35270613960669006,"37":0.21365003499492616,"38":0.32500962131536154,"39":0.7530970549984688,"40":0.19730754327798802,"41":0.13306842378617184,"42":-0.9805399476561434,"43":0.5704958125958273,"44":-0.03126350506479419,"45":0.5855017942960049,"46":-0.5209534890992633,"47":-8.262568751587029,"48":0.551237127442339,"49":0.2627019887991394,"50":-0.008191817060674872,"51":0.20866140597976446,"52":-2.115600519575236,"53":0.2594011702840219,"54":-0.8758405179951746,"55":0.11196466730963286,"56":0.3713644335266275,"57":0.07374348206119746,"58":0.16201517289841844,"59":0.23943985074050722,"60":0.46231922233528994,"61":0.0994267749066668,"62":-1.137398079455637,"63":0.72495708612131,"64":0.35307519331240916,"65":0.6163067739978414,"66":0.2009587359383976,"67":-1.122692300455223,"68":0.5807606268084071,"69":0.6270766330325686,"70":0.26199922710097023,"71":-1.3967764964994203,"72":0.7521965700503764,"73":1.0914260111089962,"74":0.612710060950344,"75":0.5282147189221159,"76":-1.0637269286285762,"77":0.18323367262141776,"78":0.7831583169502772,"79":0.5335327413815198}}}],"outputLookup":false,"inputLookup":false};

  for (var i = 1; i < net.layers.length; i++) {
    var layer = net.layers[i];
    var output = {};
    
    for (var id in layer) {
      var node = layer[id];
      var sum = node.bias;
      
      for (var iid in node.weights) {
        sum += node.weights[iid] * input[iid];
      }
      output[id] = (1 / (1 + Math.exp(-sum)));
    }
    input = output;
  }
  return output;
}